// Neural Network File Format by Kyle Julian, Stanford 2016
3,5,2,6,
5,6,5,2,
0,
4.0,250.0,1.0,1.0,19.0,
72.0,18424.0,4.0,4.0,75.0,
20.903,3271.26,2.98,2.85,35.55,0.5,
68.0,18174.0,3.0,3.0,56.0,1.0,
5.20411e-01,-2.11984e-01,-4.53695e-01,9.80859e-02,-5.80480e-02,
-7.18625e-01,5.58403e-01,3.94548e-01,-4.21710e-01,5.17122e-01,
-5.96880e-02,1.45335e-01,-4.19727e-01,4.30512e-01,-6.09724e-01,
-3.30510e-01,7.27806e-01,-1.89981e-01,2.62132e-01,5.78725e-01,
-2.53008e-01,5.52056e-01,-2.60023e-01,-5.49215e-01,4.93843e-02,
2.35004e-01,-4.53774e-01,4.58898e-01,-2.50880e-01,6.60828e-01,
0.00000e+00,
-2.88841e-02,
-2.84684e-02,
2.95012e-02,
-2.88667e-02,
0.00000e+00,
-1.37824e-01,-2.40351e-01,-1.92633e-01,-3.66056e-01,4.98083e-02,-7.12138e-01,
4.41606e-01,2.83418e-01,1.20020e-01,-4.55809e-01,2.69464e-01,4.40301e-01,
5.33733e-01,-5.21313e-01,-5.16045e-02,3.49628e-02,-3.54966e-01,-3.92458e-01,
1.53999e-01,3.52645e-03,-1.67125e-01,-7.26287e-01,-5.59647e-01,-3.41094e-01,
-1.00416e-01,1.21100e-01,-3.81414e-01,-7.08222e-01,1.96575e-01,5.60356e-01,
0.00000e+00,
-2.92463e-02,
0.00000e+00,
0.00000e+00,
0.00000e+00,
3.30549e-01,7.04571e-03,4.66433e-02,-6.44786e-01,1.72904e-02,
8.85135e-01,3.25543e-01,-1.56778e-01,-7.38341e-01,4.51678e-01,
6.91983e-01,
-2.95468e-02,
