// Neural Network File Format by Kyle Julian, Stanford 2016
3,15,2,15,
15,6,5,2,
0,
0.0,4.0,0.0,0.0,250.0,0.0,1.0,0.0,0.0,19.0,0.0,1.0,0.0,1.0,0.0,
3.0,72.0,4.0,10.0,18424.0,4.0,4.0,2.0,3.0,75.0,2.0,4.0,3.0,2.0,1.0,
1.001,20.903,1.455,2.828,3271.258,1.616,2.973,0.145,1.358,35.546,1.071,1.407,1.096,1.155,0.69,0.7,
3.0,68.0,4.0,10.0,174.0,4.0,3.0,2.0,3.0,56.0,2.0,3.0,3.0,1.0,1.0,1.0,
-5.22209e-02,-3.29884e-01,-1.75153e-01,1.55514e-01,-1.32513e-01,4.20368e-01,-4.42040e-01,3.31652e-01,2.14827e-03,-2.19634e-01,-3.17569e-01,2.47753e-01,2.20049e-01,-4.00584e-01,3.75268e-01,
-2.75167e-02,2.12484e-01,2.88462e-01,3.85853e-02,-2.33320e-01,-1.37741e-01,-3.87979e-03,4.31553e-01,4.02061e-02,3.77355e-01,-7.82589e-02,-5.10709e-01,5.12526e-01,-1.50767e-01,-1.59304e-01,
-3.69629e-01,2.23724e-03,-2.28457e-01,-1.57234e-01,-2.18185e-03,9.00600e-02,2.31590e-01,2.12348e-01,-2.32638e-02,2.82788e-01,-3.34716e-02,-2.53618e-01,8.20922e-02,3.50505e-01,9.97242e-02,
-4.64636e-01,-1.57882e-01,-1.49989e-01,-4.86592e-01,2.75932e-04,-3.29729e-02,3.43385e-01,-2.35761e-01,-2.55279e-01,9.70782e-02,2.65773e-01,-2.90415e-01,-6.76172e-01,-5.68983e-01,1.48719e-01,
-2.76315e-01,-1.98514e-01,-3.17840e-01,3.36179e-02,-3.15084e-01,-4.25594e-01,1.44096e-01,-1.09716e-01,3.64913e-01,1.63555e-01,7.63435e-02,-5.32741e-01,1.78496e-01,-2.12472e-01,1.63469e-01,
-2.93232e-01,-2.69758e-01,-5.10827e-01,2.01221e-01,-4.67626e-01,-4.48408e-01,4.60153e-02,3.98797e-01,-3.14132e-01,9.63022e-02,-3.68475e-01,-7.81297e-02,9.90645e-02,2.44299e-01,2.66379e-01,
0.00000e+00,
0.00000e+00,
-1.73093e-01,
-1.80742e-01,
0.00000e+00,
0.00000e+00,
-6.01738e-01,-3.16302e-01,2.71125e-01,3.31629e-01,-7.01874e-01,-6.29019e-01,
-6.08342e-01,-5.76177e-01,2.61377e-02,-8.23265e-01,-2.87582e-01,1.57650e-01,
-4.71231e-01,3.10667e-02,-2.72446e-01,4.48697e-01,3.91745e-01,-2.29034e-01,
-6.43125e-01,1.10301e-01,-7.29388e-01,3.46995e-01,-3.03649e-01,-3.10879e-01,
5.43370e-01,-4.57242e-01,4.37356e-01,1.55223e-02,-2.48516e-01,5.10666e-01,
-2.07996e-01,
-4.80281e-01,
2.66415e-01,
-2.06344e-01,
-1.95447e-01,
-6.13646e-01,5.53763e-01,6.64619e-01,-2.48656e-01,3.89526e-01,
4.78663e-01,4.95786e-01,-6.95880e-01,6.40109e-01,2.31875e-01,
2.25201e-01,
-2.24896e-01,
