// Neural Network File Format by Kyle Julian, Stanford 2016
3,8,3,8,
8,6,5,3,
0,
1.0,1.0,1.0,1.0,1.0,1.0,1.0,1.0,
2.0,2.0,2.0,1.0,7.0,6.0,7.0,3.0,
1.225,1.554,1.0388,1.0,1.616,1.613,1.487,2.0,1.47,
1.0,1.0,1.0,0.0,6.0,5.0,6.0,11.0,2.0,
1.23074e-01,-5.90629e-02,6.46447e-01,6.95443e-01,4.03703e-01,1.33189e-01,5.90269e-01,-7.85127e-01,
-4.31781e-01,3.27717e-01,-1.21035e-01,5.85658e-01,5.28709e-02,4.91789e-01,-1.83531e-01,2.72818e-01,
5.26997e-01,-3.53005e-01,-4.53319e-01,-3.72049e-02,1.42827e-01,-6.17278e-02,6.71528e-01,2.40391e-01,
4.37403e-01,-5.00531e-01,5.88914e-01,2.33568e-01,1.37098e-02,1.71231e-01,5.89234e-01,-2.81873e-01,
-2.06111e-01,7.65555e-01,3.88191e-01,-8.29304e-01,4.05732e-01,1.31257e-01,3.52310e-01,-8.20469e-02,
2.96180e-01,-2.79493e-01,3.62974e-01,-7.05508e-01,-2.04651e-01,1.71788e-01,-3.25605e-01,-4.42880e-01,
2.73324e-01,
1.15910e-01,
2.31311e-01,
-6.57892e-02,
-1.92735e-01,
-1.80199e-01,
-3.88184e-01,7.57173e-02,5.21554e-01,-4.02959e-01,1.10345e-01,6.65191e-02,
-3.55096e-01,-2.62178e-01,-2.56203e-01,4.37764e-01,7.03267e-02,-7.38140e-01,
7.22450e-01,2.52613e-01,3.50842e-01,-3.86409e-01,-7.07357e-01,5.08631e-01,
-7.11093e-01,5.12224e-01,-7.39411e-01,2.14379e-01,-5.14697e-01,-1.58544e-01,
-7.01848e-01,5.59533e-02,-2.60287e-01,-2.72959e-01,9.80096e-02,4.01586e-02,
-1.27913e-01,
-3.72822e-02,
1.70184e-01,
-5.08475e-02,
0.00000e+00,
8.11211e-01,-6.20012e-01,4.62390e-01,-7.25756e-02,-2.03568e-01,
-3.07413e-01,7.19068e-01,-1.78094e-01,8.62108e-02,2.52914e-01,
2.32724e-01,7.19810e-01,-7.71945e-01,-6.46162e-01,2.48166e-01,
1.37367e-01,
4.19734e-01,
-2.47769e-02,
