// Neural Network File Format by Kyle Julian, Stanford 2016
2,10,2,10,
10,8,2,
0,
17.0,0.0,1.0,0.0,0.0,0.0,0.0,0.0,1.0,0.0,
90.0,6.0,16.0,13.0,4.0,1.0,99999.0,4356.0,99.0,40.0,
38.438,2.109,10.12,4.26,0.212,0.324,1092.0,88.372,40.93,1.183,0.249,
73.0,6.0,15.0,13.0,4.0,1.0,99999.0,4356.0,98.0,40.0,1.0,
-3.22972e-01,-1.89345e-01,2.70378e-01,-3.33223e-01,1.68040e-01,-3.34140e-01,-1.30944e-01,-2.01598e-02,-3.38015e-02,9.56598e-02,
-6.78876e-01,-3.63605e-01,-6.89897e-01,-2.27388e-01,-2.91189e-01,-5.06410e-01,2.91053e-01,-3.05387e-01,-3.59576e-01,4.36493e-01,
-6.75129e-01,-5.32790e-01,3.46183e-03,-1.20186e-01,1.50242e-01,-5.00544e-01,3.76958e-01,4.71569e-01,-5.37120e-01,2.66091e-01,
-6.55050e-01,2.67371e-01,1.44975e-01,4.52508e-02,3.20387e-01,-2.07857e-01,-3.84790e-01,6.00915e-01,-1.52711e-02,2.70491e-01,
5.55006e-01,2.11824e-01,5.75345e-01,6.06314e-01,-2.20545e-01,5.24382e-01,6.91943e-01,-2.91557e-01,-6.71804e-02,4.52023e-01,
-4.66429e-01,2.54877e-01,5.74482e-02,2.30018e-01,4.01211e-01,-2.53359e-02,-4.42983e-01,4.16270e-01,-1.83777e-01,2.14021e-01,
1.96732e-01,4.35806e-02,1.47288e-01,2.32198e-01,-4.72541e-02,4.44969e-01,-4.89633e-03,-3.14927e-01,-3.18282e-02,1.63199e-01,
-4.83251e-01,5.36294e-01,-1.34493e-01,-2.00275e-01,4.06933e-01,-1.71836e-01,-2.98518e-01,-4.61399e-01,-4.83673e-01,2.81499e-01,
-7.36164e-02,
-2.34653e-01,
-1.43996e-01,
-1.62660e-01,
-4.82752e-01,
-1.36592e-01,
1.43438e+00,
0.00000e+00,
-8.60435e-01,3.81157e-01,-3.13535e-02,-4.36513e-01,-2.20947e-01,5.00801e-01,5.97252e-01,-1.91233e-01,
-6.31405e-01,5.66414e-01,1.43544e-02,-5.52179e-01,-2.91531e-01,-6.29529e-01,9.86802e-02,-6.91932e-03,
5.78205e-01,
-1.90545e-01,
