// Neural Network File Format by Kyle Julian, Stanford 2016
3,20,2,20,
20,10,10,2,
0,
0.0,4.0,0.0,0.0,250.0,0.0,0.0,1.0,0.0,1.0,0.0,19.0,0.0,0.0,1.0,0.0,1.0,0.0,0.0,0.0,
3.0,72.0,4.0,10.0,18424.0,4.0,4.0,4.0,2.0,4.0,3.0,75.0,2.0,2.0,4.0,3.0,2.0,1.0,1.0,1.0,
1.001,20.903,1.455,2.828,3271.258,1.19,1.616,2.973,0.145,2.845,1.358,35.546,0.325,1.071,1.407,1.096,1.155,0.404,0.963,0.69,0.7,
3.0,68.0,4.0,10.0,174.0,4.0,4.0,3.0,2.0,3.0,3.0,56.0,2.0,2.0,3.0,3.0,1.0,1.0,1.0,1.0,1.0,
-2.82811e-01,-4.82433e-02,-2.33258e-01,3.51643e-01,-2.01070e-01,-4.35519e-01,-3.65465e-01,-3.43304e-01,-3.75579e-01,-4.24985e-02,-3.89502e-02,3.61489e-01,1.15325e-01,-5.39404e-02,1.72233e-01,-1.38780e-01,9.52655e-03,3.57819e-01,-4.21819e-01,4.09556e-02,
5.79203e-02,-1.29664e-02,-1.62399e-01,-1.66558e-02,4.28204e-01,4.78802e-01,-7.01967e-02,-3.24412e-01,-2.61288e-01,2.24234e-01,3.78104e-01,3.44161e-01,4.06039e-01,-3.14528e-01,-2.92341e-01,-3.10764e-01,4.25799e-01,-9.10961e-02,2.35063e-01,-2.08595e-01,
-2.79191e-01,-3.70317e-01,-2.67175e-01,1.51597e-01,3.32271e-01,2.69259e-01,-2.14387e-01,3.50051e-01,-2.01777e-01,-5.42434e-01,-4.64306e-01,-1.75215e-01,-8.34829e-02,5.25284e-02,-1.88312e-01,1.77258e-01,-3.77324e-01,1.01589e-01,1.46771e-01,-1.75817e-01,
3.54576e-01,1.82594e-01,-1.69329e-01,-2.30558e-01,-1.33840e-01,7.20847e-02,-3.71096e-02,-6.60062e-02,4.13372e-01,4.19900e-01,-5.50921e-02,3.23442e-01,-5.44049e-02,3.47082e-01,6.69436e-02,-3.05050e-01,-1.06156e-01,8.87040e-02,-3.69569e-01,-7.63587e-02,
2.65292e-01,-1.71742e-01,-3.77273e-01,2.46648e-01,2.37293e-01,-3.50561e-01,-3.83823e-01,-4.23668e-01,-2.20461e-02,2.80115e-01,-2.42549e-01,6.07724e-02,-2.41066e-01,-3.55763e-01,-1.42958e-01,-5.21967e-02,-1.61229e-02,3.24414e-01,-1.74420e-01,-3.56294e-01,
8.68550e-02,-4.34406e-01,3.12775e-01,-3.51665e-01,3.20239e-01,1.87520e-01,1.27882e-01,2.71649e-01,-4.58289e-01,-1.22143e-01,2.78109e-01,2.40420e-02,2.22195e-01,-3.04353e-01,-2.81397e-01,-4.31331e-01,-1.00467e-01,5.00359e-03,1.46835e-01,-1.80716e-01,
8.83008e-02,2.78499e-01,2.42772e-01,-4.27159e-01,2.39442e-01,-3.16509e-01,1.01647e-01,3.87815e-02,3.66171e-01,3.55873e-01,-1.63631e-01,2.77077e-01,2.18418e-01,9.52272e-02,-2.04504e-01,-2.69812e-01,2.32316e-02,-1.94936e-01,-3.90612e-01,2.92791e-01,
1.08198e-01,-1.35173e-01,4.58042e-01,-3.71658e-01,3.22010e-01,1.11538e-01,8.02353e-02,1.15556e-01,3.90669e-01,-2.42441e-01,2.81226e-02,-3.10506e-01,3.72814e-01,4.39218e-01,-3.99350e-02,-1.52153e-01,-4.10394e-02,3.61660e-01,2.39489e-01,4.65836e-01,
-2.64356e-01,4.12699e-01,-4.10638e-01,-4.02161e-02,-3.14858e-01,-5.33237e-02,-4.33850e-01,1.25005e-01,1.93829e-01,9.47326e-02,2.50129e-01,-1.80136e-01,-2.34539e-01,-2.73902e-01,-3.50990e-01,-4.33795e-01,-2.59487e-01,-2.16011e-01,2.94980e-01,-1.59564e-01,
3.89643e-01,-2.41710e-01,3.70902e-01,3.14120e-02,-2.50732e-01,-8.28420e-02,-4.18737e-01,2.09348e-01,-4.30215e-01,-3.66315e-01,1.00218e-01,2.00782e-01,4.22015e-01,-3.84963e-01,-2.56080e-01,5.77663e-02,-1.53611e-01,-1.28229e-01,-2.64094e-01,3.53301e-01,
0.00000e+00,
8.56733e-02,
-9.70814e-02,
0.00000e+00,
5.42472e-03,
-9.12880e-02,
-6.40474e-02,
6.36815e-02,
0.00000e+00,
0.00000e+00,
3.54029e-01,-3.79018e-01,2.09573e-01,-4.07723e-01,-2.94074e-01,1.27582e-01,-1.32548e-01,-1.72544e-03,-1.48819e-01,-4.46583e-01,
-2.58228e-01,-2.82673e-01,1.36629e-01,-4.55639e-01,-5.38922e-01,-1.20416e-01,1.21741e-01,-2.15592e-01,-7.44068e-02,2.52620e-01,
-5.30911e-01,-3.93728e-01,3.57189e-01,-5.25855e-02,-2.08771e-02,3.94706e-01,-1.29918e-02,-2.09716e-01,-1.86426e-01,-3.41402e-01,
3.40938e-01,4.47352e-01,-4.58009e-01,2.66714e-01,2.88849e-01,8.18973e-02,-2.55418e-01,-3.99853e-01,3.23546e-01,-4.84587e-01,
6.24965e-02,-5.39021e-01,3.68057e-01,4.64078e-01,4.00461e-01,-2.48228e-01,1.35948e-01,1.65988e-01,-1.15678e-01,1.88504e-01,
-3.76043e-02,-1.93752e-01,-3.31863e-01,4.84565e-01,-5.04102e-01,-1.22288e-01,-1.45000e-01,-1.61977e-01,5.38244e-01,-2.40708e-01,
1.34133e-01,-1.40101e-01,-1.57135e-01,-1.76408e-01,-4.10579e-01,3.91499e-01,-3.90922e-01,5.16722e-02,3.50264e-01,1.49344e-01,
4.60923e-01,1.56502e-01,1.40019e-01,1.66344e-01,-3.23430e-01,-2.23961e-01,-1.66030e-02,1.19159e-01,2.90147e-01,-3.70050e-01,
2.54873e-01,-4.47678e-01,-7.18675e-02,1.29580e-01,1.65159e-01,3.58484e-01,-4.73600e-01,-4.62503e-01,-2.95469e-01,9.44480e-02,
2.71252e-01,-3.15566e-01,-2.77737e-01,-2.42410e-01,5.16582e-01,4.47667e-01,-5.87076e-02,-5.54048e-01,-1.75126e-01,3.77038e-01,
0.00000e+00,
0.00000e+00,
-1.04402e-01,
-1.17413e-02,
-5.03176e-02,
0.00000e+00,
0.00000e+00,
-2.32107e-01,
0.00000e+00,
-9.75661e-03,
5.27215e-01,4.23859e-01,-5.23800e-01,5.94554e-01,5.83980e-02,-3.28942e-01,-2.62152e-01,2.70008e-01,-2.23449e-01,-6.66434e-01,
-5.48614e-01,-3.48420e-01,7.05054e-02,-2.43292e-01,-1.62133e-01,-3.63928e-02,-5.71960e-01,-1.84638e-01,-2.17389e-01,5.61956e-01,
1.33207e-01,
2.21076e-01,
