// Neural Network File Format by Kyle Julian, Stanford 2016
5,20,2,20,
20,6,5,2,4,2,
0,
1.0,4.0,1.0,1.0,250.0,1.0,1.0,1.0,1.0,1.0,1.0,1.0,19.0,1.0,1.0,1.0,1.0,1.0,0.0,0.0,
4.0,72.0,5.0,11.0,18424.0,5.0,5.0,4.0,5.0,3.0,4.0,4.0,75.0,3.0,3.0,4.0,4.0,2.0,1.0,1.0,
2.9,20.9,3.0,6.0,3271.3,3.0,3.0,2.9,3.0,2.1,2.9,2.9,35.5,2.1,2.1,1.4,2.5,1.2,0.5,0.5,0.5,
3.0,68.0,4.0,10.0,18174.0,4.0,4.0,3.0,4.0,2.0,3.0,3.0,56.0,2.0,2.0,3.0,3.0,1.0,1,0,1.0,
-3.47411e-01,-2.08251e-01,-1.32816e-02,1.27243e-01,3.12086e-01,2.57346e-01,2.29459e-01,8.00127e-02,-3.48588e-01,-2.04446e-01,3.57363e-01,4.53907e-01,-3.80863e-01,5.61203e-02,-2.01911e-02,-3.51199e-01,3.53357e-01,-2.04406e-01,-2.29854e-01,-2.28505e-01,
1.33958e-01,-9.13866e-02,3.75674e-01,1.14302e-02,-1.06686e-01,3.66248e-01,-4.58576e-01,1.82810e-01,-4.75176e-01,-3.61654e-01,2.47136e-01,-1.94749e-02,1.19400e-01,1.36827e-01,-5.88151e-02,-2.13101e-01,-2.80362e-01,2.26988e-01,1.39839e-01,2.62473e-01,
4.27608e-01,-3.08075e-01,-4.55710e-02,-2.81158e-01,3.39321e-01,-4.49721e-01,5.29056e-02,4.61393e-01,4.67303e-01,1.96500e-01,-1.12818e-01,-3.47422e-01,-3.23299e-01,2.00597e-01,-6.32449e-02,-3.95803e-01,6.07742e-02,3.31441e-01,-3.47832e-01,2.75419e-01,
-2.12607e-01,8.45984e-03,-5.49712e-02,2.12778e-01,-3.61582e-01,6.78110e-02,-3.50625e-01,-1.03483e-01,-1.30315e-01,2.28186e-01,-4.03322e-01,-1.14095e-02,-8.34349e-02,4.26688e-01,-1.72684e-02,-5.37421e-02,-4.72989e-01,2.94590e-01,-2.39731e-01,-1.90081e-01,
1.31201e-01,-2.89851e-01,-2.36456e-01,3.61739e-01,5.31570e-02,-4.44558e-01,4.00598e-01,2.40422e-01,2.56979e-02,-1.43003e-01,-3.95293e-01,-3.81522e-01,-3.36065e-02,2.75631e-01,-4.23675e-01,8.15319e-02,1.62528e-01,4.25013e-01,-2.42694e-01,1.37299e-01,
3.25094e-01,2.53653e-01,-1.01333e-01,-1.13135e-01,4.30695e-01,-2.69458e-01,-4.01982e-01,1.81784e-01,-3.19217e-01,-4.23499e-01,3.62409e-01,2.35250e-01,3.73796e-01,-8.50149e-02,-2.35629e-03,-1.07372e-01,2.07525e-01,4.13558e-01,-1.11176e-01,3.44057e-01,
0.00000e+00,
0.00000e+00,
0.00000e+00,
0.00000e+00,
0.00000e+00,
0.00000e+00,
4.44138e-01,1.48194e-01,8.23104e-03,-2.50907e-01,3.50719e-01,6.63157e-01,
-6.30366e-01,-4.37998e-01,-4.17418e-01,9.33795e-02,5.73238e-01,-2.44423e-01,
-6.97095e-01,1.38564e-01,-6.10405e-01,-1.14297e-01,4.95318e-01,-6.60097e-01,
-3.83031e-02,1.10203e-01,2.79710e-01,1.37387e-01,-2.54684e-01,-3.24552e-01,
-4.95151e-01,5.40209e-01,4.68614e-01,-5.38668e-01,-1.07245e-01,3.07280e-02,
0.00000e+00,
0.00000e+00,
0.00000e+00,
0.00000e+00,
0.00000e+00,
-7.81891e-01,-8.63848e-01,-5.29132e-01,-3.43621e-01,-4.90948e-01,
8.68418e-01,-4.57226e-02,-9.17794e-01,-7.17141e-01,-2.54798e-01,
0.00000e+00,
0.00000e+00,
-2.36547e-01,5.64770e-01,
9.42963e-01,-4.92527e-02,
-3.19800e-02,-2.59542e-02,
8.29677e-01,7.22146e-01,
0.00000e+00,
0.00000e+00,
0.00000e+00,
0.00000e+00,
7.97905e-01,-1.63165e-01,-9.69818e-01,-3.79077e-01,
-1.66950e-01,4.39123e-01,9.70478e-02,3.81707e-01,
0.00000e+00,
0.00000e+00,
